\data\
ngram 1=88
ngram 2=111
ngram 3=116

\1-grams:
-2.0886545	<unk>	0
0	<s>	-0.12469551
-1.7451731	</s>	0
-1.4437028	z	-0.09727512
-2.0091493	powodu	-0.07991177
-1.783942	śmierci	-0.10924876
-2.0091493	naszego	-0.07991177
-2.0091493	przyjaciela	-0.07991177
-1.3467048	i	-0.07991177
-1.7451731	kolegi	0
-1.783942	roberta	-0.07991177
-2.0091493	odyjasa	-0.07991177
-1.783942	rodzinie	-0.12469551
-2.0091493	bliskim	-0.07991177
-2.0091493	składają	-0.07991177
-2.0091493	koleżanki	-0.07991177
-2.0091493	koledzy	-0.07991177
-1.783942	zarządu	-0.12469551
-2.0091493	regionu	-0.07991177
-2.0091493	śląsko-dąbrowskiego	-0.07991177
-1.7451731	nszz	-0.018642109
-2.0091493	solidarność	-0.07991177
-2.0091493	|	-0.07991177
-2.0091493	adres	-0.07991177
-2.0091493	redakcji:	-0.07991177
-2.0091493	40-286	-0.07991177
-2.0091493	katowice,	-0.07991177
-2.0091493	ul.	-0.07991177
-2.0091493	floriana	-0.07991177
-2.0091493	7,	-0.07991177
-2.0091493	tel.	-0.07991177
-2.0091493	32	-0.07991177
-2.0091493	253-72-54	-0.07991177
-1.783942	o	-0.12469551
-2.0091493	łączymy	-0.07991177
-2.0091493	się	-0.07991177
-1.5687883	w	-0.07991177
-2.0091493	bólu	-0.07991177
-2.0091493	rodziną	-0.07991177
-2.0091493	przyjaciółmi	-0.07991177
-2.0091493	wierząc,	-0.07991177
-2.0091493	że	-0.07991177
-2.0091493	„nie	-0.07991177
-2.0091493	umiera	-0.07991177
-2.0091493	ten,	-0.07991177
-2.0091493	kto	-0.07991177
-2.0091493	trwa	-0.07991177
-2.0091493	pamięci	-0.07991177
-2.0091493	żywych”.	-0.07991177
-2.0091493	pogrążeni	-0.07991177
-2.0091493	żalu	-0.07991177
-2.0091493	pracownicy	-0.07991177
-1.783942	biura	-0.07991177
-2.0091493	terenowego	-0.07991177
-2.0091493	zawierciu	-0.07991177
-2.0091493	członkowie	-0.07991177
-2.0091493	ziemi	-0.07991177
-2.0091493	zawierciańskiej	-0.07991177
-2.0091493	serdeczne	-0.07991177
-2.0091493	kondolencje	-0.07991177
-2.0091493	ze	-0.07991177
-2.0091493	związkowej	-0.07991177
-2.0091493	firmy	-0.07991177
-2.0091493	soldar	-0.07991177
-2.0091493	smutkiem	-0.07991177
-2.0091493	przyjęliśmy	-0.07991177
-2.0091493	wiadomość	-0.07991177
-1.783942	wyrazy	-0.07991177
-2.0091493	głębokiego	-0.07991177
-2.0091493	współczucia	-0.07991177
-2.0091493	odyjasa,	-0.07991177
-2.0091493	pracownika	-0.07991177
-2.0091493	ds.	-0.07991177
-2.0091493	rozwoju	-0.07991177
-2.0091493	szkoleń	-0.07991177
-2.0091493	związkowych	-0.07991177
-2.0091493	oraz	-0.07991177
-2.0091493	współpracy	-0.07991177
-2.0091493	zagranicznej	-0.07991177
-2.0091493	solidarność.	-0.07991177
-2.0091493	składam	-0.07991177
-2.0091493	najgłębszego	-0.07991177
-2.0091493	współczucia.	-0.07991177
-2.0091493	piotr	-0.07991177
-2.0091493	duda	-0.07991177
-2.0091493	przewodniczący	-0.07991177
-2.0091493	komisji	-0.07991177
-2.0091493	krajowej	-0.07991177

\2-grams:
-1.0043954	solidarność </s>	0
-0.73748565	zawierciańskiej </s>	0
-0.73748565	wiadomość </s>	0
-1.0486151	<s> z	-0.30103
-0.9431606	koledzy z	-0.30103
-0.70329875	bólu z	-0.30103
-0.70329875	kondolencje z	-0.30103
-0.70329875	soldar z	-0.30103
-0.96795136	z powodu	-0.42596874
-0.74052775	powodu śmierci	-0.30103
-0.58182937	o śmierci	-0.42596874
-0.75944984	śmierci naszego	-0.38021123
-1.0353656	naszego przyjaciela	-0.30103
-0.68716425	przyjaciela i	-0.30103
-0.5476689	rodzinie i	-0.60206
-0.68716425	koleżanki i	-0.42596874
-0.68716425	rodziną i	-0.30103
-0.68716425	zawierciu i	-0.30103
-0.68716425	rozwoju i	-0.30103
-1.1548729	śmierci kolegi	-0.30103
-1.0043954	naszego kolegi	-0.42596874
-1.3668282	i kolegi	-0.30103
-1.783942	kolegi roberta	-0.50514996
-0.74052775	przyjaciółmi roberta	-0.30103
-1.1926794	roberta odyjasa	-0.38021123
-1.0100365	odyjasa rodzinie	-0.42596874
-0.74052775	solidarność. rodzinie	-0.30103
-1.4418064	i bliskim	-0.38021123
-1.0353656	bliskim składają	-0.42596874
-0.7539618	składają koleżanki	-0.42596874
-1.4418064	i koledzy	-0.30103
-1.3301337	z zarządu	-0.30103
-0.74052775	zagranicznej zarządu	-0.30103
-0.5901892	zarządu regionu	-0.42596874
-0.7539618	regionu śląsko-dąbrowskiego	-0.42596874
-0.73748565	śląsko-dąbrowskiego nszz	-0.30103
-0.73748565	członkowie nszz	-0.30103
-0.73748565	krajowej nszz	-0.30103
-2.0277915	nszz solidarność	-0.38021123
-1.156501	<s> |	-0.30103
-0.7539618	| adres	-0.30103
-0.7539618	adres redakcji:	-0.30103
-0.7539618	redakcji: 40-286	-0.30103
-0.7539618	40-286 katowice,	-0.30103
-0.7539618	katowice, ul.	-0.30103
-0.7539618	ul. floriana	-0.30103
-0.7539618	floriana 7,	-0.30103
-0.7539618	7, tel.	-0.30103
-0.7539618	tel. 32	-0.30103
-0.7539618	32 253-72-54	-0.30103
-0.74052775	253-72-54 o	-0.30103
-0.74052775	współczucia o	-0.30103
-1.0353656	odyjasa łączymy	-0.30103
-0.7539618	łączymy się	-0.30103
-0.72005594	się w	-0.30103
-0.72005594	trwa w	-0.30103
-0.72005594	pogrążeni w	-0.30103
-0.72005594	terenowego w	-0.30103
-1.2996191	w bólu	-0.30103
-1.3825793	z rodziną	-0.30103
-1.4418064	i przyjaciółmi	-0.30103
-1.1926794	roberta wierząc,	-0.30103
-0.7539618	wierząc, że	-0.30103
-0.7539618	że „nie	-0.30103
-0.7539618	„nie umiera	-0.30103
-0.7539618	umiera ten,	-0.30103
-0.7539618	ten, kto	-0.30103
-0.7539618	kto trwa	-0.30103
-1.2996191	w pamięci	-0.30103
-0.7539618	pamięci żywych”.	-0.30103
-0.7539618	żywych”. pogrążeni	-0.30103
-1.2996191	w żalu	-0.30103
-0.7539618	żalu pracownicy	-0.30103
-0.74052775	pracownicy biura	-0.30103
-0.74052775	pracownika biura	-0.30103
-1.0353656	biura terenowego	-0.30103
-1.2996191	w zawierciu	-0.30103
-1.4418064	i członkowie	-0.30103
-1.0353656	solidarność ziemi	-0.30103
-0.7539618	ziemi zawierciańskiej	-0.30103
-1.156501	<s> serdeczne	-0.30103
-0.7539618	serdeczne kondolencje	-0.30103
-1.0353656	koledzy ze	-0.30103
-0.7539618	ze związkowej	-0.30103
-0.7539618	związkowej firmy	-0.30103
-0.7539618	firmy soldar	-0.30103
-1.3825793	z smutkiem	-0.30103
-0.7539618	smutkiem przyjęliśmy	-0.30103
-0.7539618	przyjęliśmy wiadomość	-0.30103
-1.1264684	<s> wyrazy	-0.30103
-0.74052775	składam wyrazy	-0.30103
-1.0353656	wyrazy głębokiego	-0.30103
-0.7539618	głębokiego współczucia	-0.30103
-1.1926794	roberta odyjasa,	-0.30103
-0.7539618	odyjasa, pracownika	-0.30103
-1.0353656	biura ds.	-0.30103
-0.7539618	ds. rozwoju	-0.30103
-1.4418064	i szkoleń	-0.30103
-0.7539618	szkoleń związkowych	-0.30103
-0.7539618	związkowych oraz	-0.30103
-0.7539618	oraz współpracy	-0.30103
-0.7539618	współpracy zagranicznej	-0.30103
-1.2890629	nszz solidarność.	-0.30103
-1.0353656	bliskim składam	-0.30103
-1.0353656	wyrazy najgłębszego	-0.30103
-0.7539618	najgłębszego współczucia.	-0.30103
-0.7539618	współczucia. piotr	-0.30103
-0.7539618	piotr duda	-0.30103
-0.7539618	duda przewodniczący	-0.30103
-0.7539618	przewodniczący komisji	-0.30103
-0.7539618	komisji krajowej	-0.30103

\3-grams:
-0.33921632	nszz solidarność </s>
-0.22803545	ziemi zawierciańskiej </s>
-0.22803545	przyjęliśmy wiadomość </s>
-0.51287377	i koledzy z
-0.22256725	w bólu z
-0.22256725	serdeczne kondolencje z
-0.22256725	firmy soldar z
-0.25662407	<s> z powodu
-0.25662407	kondolencje z powodu
-0.1591691	z powodu śmierci
-0.19999777	253-72-54 o śmierci
-0.19999777	współczucia o śmierci
-0.47236985	powodu śmierci naszego
-0.16099349	o śmierci naszego
-0.6880877	śmierci naszego przyjaciela
-0.21985869	naszego przyjaciela i
-0.13592924	odyjasa rodzinie i
-0.19268312	solidarność. rodzinie i
-0.15362161	składają koleżanki i
-0.21985869	z rodziną i
-0.21985869	w zawierciu i
-0.21985869	ds. rozwoju i
-0.5451516	powodu śmierci kolegi
-0.33921632	śmierci naszego kolegi
-0.2827579	przyjaciela i kolegi
-0.29394573	śmierci kolegi roberta
-0.19985557	naszego kolegi roberta
-0.29394573	i kolegi roberta
-0.22850472	i przyjaciółmi roberta
-0.23466486	kolegi roberta odyjasa
-0.33972144	roberta odyjasa rodzinie
-0.22850472	nszz solidarność. rodzinie
-0.119735755	rodzinie i bliskim
-0.34191722	i bliskim składają
-0.16047172	bliskim składają koleżanki
-0.19479902	koleżanki i koledzy
-0.28118324	koledzy z zarządu
-0.22850472	współpracy zagranicznej zarządu
-0.20171973	z zarządu regionu
-0.20171973	zagranicznej zarządu regionu
-0.16047172	zarządu regionu śląsko-dąbrowskiego
-0.15886901	regionu śląsko-dąbrowskiego nszz
-0.22803545	i członkowie nszz
-0.22803545	komisji krajowej nszz
-0.59398806	śląsko-dąbrowskiego nszz solidarność
-0.29697526	członkowie nszz solidarność
-0.29697526	krajowej nszz solidarność
-0.23054396	<s> | adres
-0.23054396	| adres redakcji:
-0.23054396	adres redakcji: 40-286
-0.23054396	redakcji: 40-286 katowice,
-0.23054396	40-286 katowice, ul.
-0.23054396	katowice, ul. floriana
-0.23054396	ul. floriana 7,
-0.23054396	floriana 7, tel.
-0.23054396	7, tel. 32
-0.23054396	tel. 32 253-72-54
-0.22850472	32 253-72-54 o
-0.22850472	głębokiego współczucia o
-0.6880877	roberta odyjasa łączymy
-0.23054396	odyjasa łączymy się
-0.22529276	łączymy się w
-0.22529276	kto trwa w
-0.22529276	żywych”. pogrążeni w
-0.22529276	biura terenowego w
-0.27977344	się w bólu
-0.2833957	bólu z rodziną
-0.2856044	rodziną i przyjaciółmi
-0.2740197	przyjaciółmi roberta wierząc,
-0.23054396	roberta wierząc, że
-0.23054396	wierząc, że „nie
-0.23054396	że „nie umiera
-0.23054396	„nie umiera ten,
-0.23054396	umiera ten, kto
-0.23054396	ten, kto trwa
-0.27977344	trwa w pamięci
-0.23054396	w pamięci żywych”.
-0.23054396	pamięci żywych”. pogrążeni
-0.27977344	pogrążeni w żalu
-0.23054396	w żalu pracownicy
-0.22850472	żalu pracownicy biura
-0.22850472	odyjasa, pracownika biura
-0.26273596	pracownicy biura terenowego
-0.27977344	terenowego w zawierciu
-0.2856044	zawierciu i członkowie
-0.6880877	nszz solidarność ziemi
-0.23054396	solidarność ziemi zawierciańskiej
-0.23054396	<s> serdeczne kondolencje
-0.5285766	i koledzy ze
-0.23054396	koledzy ze związkowej
-0.23054396	ze związkowej firmy
-0.23054396	związkowej firmy soldar
-0.2833957	soldar z smutkiem
-0.23054396	z smutkiem przyjęliśmy
-0.23054396	smutkiem przyjęliśmy wiadomość
-0.22850472	bliskim składam wyrazy
-0.26273596	<s> wyrazy głębokiego
-0.23054396	wyrazy głębokiego współczucia
-0.8384745	kolegi roberta odyjasa,
-0.23054396	roberta odyjasa, pracownika
-0.26273596	pracownika biura ds.
-0.23054396	biura ds. rozwoju
-0.2856044	rozwoju i szkoleń
-0.23054396	i szkoleń związkowych
-0.23054396	szkoleń związkowych oraz
-0.23054396	związkowych oraz współpracy
-0.23054396	oraz współpracy zagranicznej
-0.55956566	śląsko-dąbrowskiego nszz solidarność.
-0.6880877	i bliskim składam
-0.26273596	składam wyrazy najgłębszego
-0.23054396	wyrazy najgłębszego współczucia.
-0.23054396	najgłębszego współczucia. piotr
-0.23054396	współczucia. piotr duda
-0.23054396	piotr duda przewodniczący
-0.23054396	duda przewodniczący komisji
-0.23054396	przewodniczący komisji krajowej

\end\
