\data\
ngram 1=88
ngram 2=111
ngram 3=116

\1-grams:
-2.0872784	<unk>	0
0	<s>	-0.039871525
-1.7385361	</s>	0
-2.016413	|	-0.039871525
-2.016413	adres	-0.039871525
-2.016413	redakcji:	-0.039871525
-2.016413	40-286	-0.039871525
-2.016413	katowice,	-0.039871525
-2.016413	ul.	-0.039871525
-2.016413	floriana	-0.039871525
-2.016413	7,	-0.039871525
-2.016413	tel.	-0.039871525
-2.016413	32	-0.039871525
-2.016413	253-72-54	-0.039871525
-1.7471838	o	-0.34425515
-1.7471838	śmierci	-0.21763636
-2.016413	naszego	-0.039871525
-1.7385361	kolegi	0
-1.7471838	roberta	-0.039871495
-2.016413	odyjasa	-0.039871525
-2.016413	łączymy	-0.039871525
-2.016413	się	-0.039871525
-1.5643554	w	-0.039871525
-2.016413	bólu	-0.039871525
-1.440375	z	-0.13761748
-2.016413	rodziną	-0.039871525
-1.3440411	i	-0.039871495
-2.016413	przyjaciółmi	-0.039871525
-2.016413	wierząc,	-0.039871525
-2.016413	że	-0.039871525
-2.016413	„nie	-0.039871525
-2.016413	umiera	-0.039871525
-2.016413	ten,	-0.039871525
-2.016413	kto	-0.039871525
-2.016413	trwa	-0.039871525
-2.016413	pamięci	-0.039871525
-2.016413	żywych”.	-0.039871525
-2.016413	pogrążeni	-0.039871525
-2.016413	żalu	-0.039871525
-2.016413	pracownicy	-0.039871525
-1.7471838	biura	-0.039871525
-2.016413	terenowego	-0.039871525
-2.016413	zawierciu	-0.039871525
-2.016413	członkowie	-0.039871525
-1.7385361	nszz	-0.00963
-2.016413	solidarność	-0.039871525
-2.016413	ziemi	-0.039871525
-2.016413	zawierciańskiej	-0.039871525
-1.7471838	wyrazy	-0.039871525
-2.016413	głębokiego	-0.039871525
-2.016413	współczucia	-0.039871525
-2.016413	odyjasa,	-0.039871525
-2.016413	pracownika	-0.039871525
-2.016413	ds.	-0.039871525
-2.016413	rozwoju	-0.039871525
-2.016413	szkoleń	-0.039871525
-2.016413	związkowych	-0.039871525
-2.016413	oraz	-0.039871525
-2.016413	współpracy	-0.039871525
-2.016413	zagranicznej	-0.039871525
-1.7471838	zarządu	-0.34425515
-2.016413	regionu	-0.039871525
-2.016413	śląsko-dąbrowskiego	-0.039871525
-2.016413	solidarność.	-0.039871525
-1.7471838	rodzinie	-0.34425515
-2.016413	bliskim	-0.039871525
-2.016413	składam	-0.039871525
-2.016413	najgłębszego	-0.039871525
-2.016413	współczucia.	-0.039871525
-2.016413	piotr	-0.039871525
-2.016413	duda	-0.039871525
-2.016413	przewodniczący	-0.039871525
-2.016413	komisji	-0.039871525
-2.016413	krajowej	-0.039871525
-2.016413	serdeczne	-0.039871525
-2.016413	kondolencje	-0.039871525
-2.016413	powodu	-0.039871525
-2.016413	składają	-0.039871525
-2.016413	koleżanki	-0.039871525
-2.016413	koledzy	-0.039871525
-2.016413	ze	-0.039871525
-2.016413	związkowej	-0.039871525
-2.016413	firmy	-0.039871525
-2.016413	soldar	-0.039871525
-2.016413	smutkiem	-0.039871525
-2.016413	przyjęliśmy	-0.039871525
-2.016413	wiadomość	-0.039871525
-2.016413	przyjaciela	-0.039871525

\2-grams:
-1.2181263	solidarność </s>	0
-0.9813987	zawierciańskiej </s>	0
-0.9813987	wiadomość </s>	0
-1.5126594	<s> |	-0.09948236
-1.0154556	| adres	-0.09948236
-1.0154556	adres redakcji:	-0.09948236
-1.0154556	redakcji: 40-286	-0.09948236
-1.0154556	40-286 katowice,	-0.09948236
-1.0154556	katowice, ul.	-0.09948236
-1.0154556	ul. floriana	-0.09948236
-1.0154556	floriana 7,	-0.09948236
-1.0154556	7, tel.	-0.09948236
-1.0154556	tel. 32	-0.09948236
-1.0154556	32 253-72-54	-0.09948236
-0.9827673	253-72-54 o	-0.09948236
-0.9827673	współczucia o	-0.09948236
-0.25533956	o śmierci	-0.08805715
-0.9827673	powodu śmierci	-0.09948236
-0.43092346	śmierci naszego	-0.09183225
-1.3946775	śmierci kolegi	-0.09948236
-1.2181263	naszego kolegi	-0.08805715
-1.5047789	i kolegi	-0.09948236
-1.7471838	kolegi roberta	-0.022816664
-0.9827673	przyjaciółmi roberta	-0.09948236
-1.4199394	roberta odyjasa	-0.09183225
-1.27865	odyjasa łączymy	-0.09948236
-1.0154556	łączymy się	-0.09948236
-0.9484813	się w	-0.09948236
-0.9484813	trwa w	-0.09948236
-0.9484813	pogrążeni w	-0.09948236
-0.9484813	terenowego w	-0.09948236
-1.5126594	w bólu	-0.09948236
-1.2594466	<s> z	-0.09948236
-0.91788405	bólu z	-0.09948236
-0.91788405	kondolencje z	-0.09948236
-1.1137689	koledzy z	-0.09948236
-0.91788405	soldar z	-0.09948236
-1.6098083	z rodziną	-0.09948236
-0.8893013	rodziną i	-0.09948236
-0.8893013	zawierciu i	-0.09948236
-0.8893013	rozwoju i	-0.09948236
-0.24575411	rodzinie i	0
-0.8893013	koleżanki i	-0.08805715
-0.8893013	przyjaciela i	-0.09948236
-1.6307033	i przyjaciółmi	-0.09948236
-1.4199394	roberta wierząc,	-0.09948236
-1.0154556	wierząc, że	-0.09948236
-1.0154556	że „nie	-0.09948236
-1.0154556	„nie umiera	-0.09948236
-1.0154556	umiera ten,	-0.09948236
-1.0154556	ten, kto	-0.09948236
-1.0154556	kto trwa	-0.09948236
-1.5126594	w pamięci	-0.09948236
-1.0154556	pamięci żywych”.	-0.09948236
-1.0154556	żywych”. pogrążeni	-0.09948236
-1.5126594	w żalu	-0.09948236
-1.0154556	żalu pracownicy	-0.09948236
-0.9827673	pracownicy biura	-0.09948236
-0.9827673	pracownika biura	-0.09948236
-1.27865	biura terenowego	-0.09948236
-1.5126594	w zawierciu	-0.09948236
-1.6307033	i członkowie	-0.09948236
-0.9813987	członkowie nszz	-0.09948236
-0.9813987	śląsko-dąbrowskiego nszz	-0.09948236
-0.9813987	krajowej nszz	-0.09948236
-2.026043	nszz solidarność	-0.09183225
-1.27865	solidarność ziemi	-0.09948236
-1.0154556	ziemi zawierciańskiej	-0.09948236
-1.4172747	<s> wyrazy	-0.09948236
-0.9827673	składam wyrazy	-0.09948236
-1.27865	wyrazy głębokiego	-0.09948236
-1.0154556	głębokiego współczucia	-0.09948236
-1.4199394	roberta odyjasa,	-0.09948236
-1.0154556	odyjasa, pracownika	-0.09948236
-1.27865	biura ds.	-0.09948236
-1.0154556	ds. rozwoju	-0.09948236
-1.6307033	i szkoleń	-0.09948236
-1.0154556	szkoleń związkowych	-0.09948236
-1.0154556	związkowych oraz	-0.09948236
-1.0154556	oraz współpracy	-0.09948236
-1.0154556	współpracy zagranicznej	-0.09948236
-1.5145413	z zarządu	-0.09948236
-0.9827673	zagranicznej zarządu	-0.09948236
-0.25827587	zarządu regionu	-0.08805715
-1.0154556	regionu śląsko-dąbrowskiego	-0.08805715
-1.503793	nszz solidarność.	-0.09948236
-1.2204894	odyjasa rodzinie	-0.08805715
-0.9827673	solidarność. rodzinie	-0.09948236
-1.6307033	i bliskim	-0.09183225
-1.27865	bliskim składam	-0.09948236
-1.27865	wyrazy najgłębszego	-0.09948236
-1.0154556	najgłębszego współczucia.	-0.09948236
-1.0154556	współczucia. piotr	-0.09948236
-1.0154556	piotr duda	-0.09948236
-1.0154556	duda przewodniczący	-0.09948236
-1.0154556	przewodniczący komisji	-0.09948236
-1.0154556	komisji krajowej	-0.09948236
-1.5126594	<s> serdeczne	-0.09948236
-1.0154556	serdeczne kondolencje	-0.09948236
-0.6459657	z powodu	-0.08805715
-1.27865	bliskim składają	-0.08805715
-1.0154556	składają koleżanki	-0.08805715
-1.6307033	i koledzy	-0.09948236
-1.27865	koledzy ze	-0.09948236
-1.0154556	ze związkowej	-0.09948236
-1.0154556	związkowej firmy	-0.09948236
-1.0154556	firmy soldar	-0.09948236
-1.6098083	z smutkiem	-0.09948236
-1.0154556	smutkiem przyjęliśmy	-0.09948236
-1.0154556	przyjęliśmy wiadomość	-0.09948236
-1.27865	naszego przyjaciela	-0.09948236

\3-grams:
-0.7661599	nszz solidarność </s>
-0.54101145	ziemi zawierciańskiej </s>
-0.54101145	przyjęliśmy wiadomość </s>
-0.5505655	<s> | adres
-0.5505655	| adres redakcji:
-0.5505655	adres redakcji: 40-286
-0.5505655	redakcji: 40-286 katowice,
-0.5505655	40-286 katowice, ul.
-0.5505655	katowice, ul. floriana
-0.5505655	ul. floriana 7,
-0.5505655	floriana 7, tel.
-0.5505655	7, tel. 32
-0.5505655	tel. 32 253-72-54
-0.5414059	32 253-72-54 o
-0.5414059	głębokiego współczucia o
-0.18944758	253-72-54 o śmierci
-0.18944758	współczucia o śmierci
-0.5710921	z powodu śmierci
-0.3131583	o śmierci naszego
-0.40098256	powodu śmierci naszego
-0.87155837	powodu śmierci kolegi
-0.7661599	śmierci naszego kolegi
-0.6390318	przyjaciela i kolegi
-0.65963787	śmierci kolegi roberta
-0.7030306	naszego kolegi roberta
-0.65963787	i kolegi roberta
-0.5414059	i przyjaciółmi roberta
-1.442756	kolegi roberta odyjasa
-0.95525616	roberta odyjasa łączymy
-0.5505655	odyjasa łączymy się
-0.5312564	łączymy się w
-0.5312564	kto trwa w
-0.5312564	żywych”. pogrążeni w
-0.5312564	biura terenowego w
-0.6398787	się w bólu
-0.5217156	w bólu z
-0.5217156	serdeczne kondolencje z
-0.786318	i koledzy z
-0.5217156	firmy soldar z
-0.6492584	bólu z rodziną
-0.5123799	z rodziną i
-0.5123799	w zawierciu i
-0.5123799	ds. rozwoju i
-0.1889793	odyjasa rodzinie i
-0.18287484	solidarność. rodzinie i
-0.5392873	składają koleżanki i
-0.5123799	naszego przyjaciela i
-0.65103865	rodziną i przyjaciółmi
-0.62899834	przyjaciółmi roberta wierząc,
-0.5505655	roberta wierząc, że
-0.5505655	wierząc, że „nie
-0.5505655	że „nie umiera
-0.5505655	„nie umiera ten,
-0.5505655	umiera ten, kto
-0.5505655	ten, kto trwa
-0.6398787	trwa w pamięci
-0.5505655	w pamięci żywych”.
-0.5505655	pamięci żywych”. pogrążeni
-0.6398787	pogrążeni w żalu
-0.5505655	w żalu pracownicy
-0.5414059	żalu pracownicy biura
-0.5414059	odyjasa, pracownika biura
-0.60802275	pracownicy biura terenowego
-0.6398787	terenowego w zawierciu
-0.65103865	zawierciu i członkowie
-0.54101145	i członkowie nszz
-0.5706587	regionu śląsko-dąbrowskiego nszz
-0.54101145	komisji krajowej nszz
-0.67322534	członkowie nszz solidarność
-0.9591917	śląsko-dąbrowskiego nszz solidarność
-0.67322534	krajowej nszz solidarność
-0.95525616	nszz solidarność ziemi
-0.5505655	solidarność ziemi zawierciańskiej
-0.5414059	bliskim składam wyrazy
-0.60802275	<s> wyrazy głębokiego
-0.5505655	wyrazy głębokiego współczucia
-1.0591886	kolegi roberta odyjasa,
-0.5505655	roberta odyjasa, pracownika
-0.60802275	pracownika biura ds.
-0.5505655	biura ds. rozwoju
-0.65103865	rozwoju i szkoleń
-0.5505655	i szkoleń związkowych
-0.5505655	szkoleń związkowych oraz
-0.5505655	związkowych oraz współpracy
-0.5505655	oraz współpracy zagranicznej
-0.6400789	koledzy z zarządu
-0.5414059	współpracy zagranicznej zarządu
-0.19145188	z zarządu regionu
-0.19145188	zagranicznej zarządu regionu
-0.5811719	zarządu regionu śląsko-dąbrowskiego
-0.8951977	śląsko-dąbrowskiego nszz solidarność.
-0.7668342	roberta odyjasa rodzinie
-0.5414059	nszz solidarność. rodzinie
-1.6307033	rodzinie i bliskim
-0.95525616	i bliskim składam
-0.60802275	składam wyrazy najgłębszego
-0.5505655	wyrazy najgłębszego współczucia.
-0.5505655	najgłębszego współczucia. piotr
-0.5505655	współczucia. piotr duda
-0.5505655	piotr duda przewodniczący
-0.5505655	duda przewodniczący komisji
-0.5505655	przewodniczący komisji krajowej
-0.5505655	<s> serdeczne kondolencje
-0.41518718	<s> z powodu
-0.41518718	kondolencje z powodu
-0.7826196	i bliskim składają
-0.5811719	bliskim składają koleżanki
-0.6932874	koleżanki i koledzy
-0.840948	i koledzy ze
-0.5505655	koledzy ze związkowej
-0.5505655	ze związkowej firmy
-0.5505655	związkowej firmy soldar
-0.6492584	soldar z smutkiem
-0.5505655	z smutkiem przyjęliśmy
-0.5505655	smutkiem przyjęliśmy wiadomość
-0.95525616	śmierci naszego przyjaciela

\end\
